network unknown {}

variable Akt {
  type discrete [ 3 ] { 0, 1, 2 };
}
variable Erk {
  type discrete [ 3 ] { 0, 1, 2 };
}
variable Jnk {
  type discrete [ 3 ] { 0, 1, 2 };
}
variable Mek {
  type discrete [ 3 ] { 0, 1, 2 };
}
variable P38 {
  type discrete [ 3 ] { 0, 1, 2 };
}
variable PIP2 {
  type discrete [ 3 ] { 0, 1, 2 };
}
variable PIP3 {
  type discrete [ 3 ] { 0, 1, 2 };
}
variable PKA {
  type discrete [ 3 ] { 0, 1, 2 };
}
variable PKC {
  type discrete [ 3 ] { 0, 1, 2 };
}
variable Plcg {
  type discrete [ 3 ] { 0, 1, 2 };
}
variable Raf {
  type discrete [ 3 ] { 0, 1, 2 };
}
probability ( Akt | Erk, PKA ) {
  ( 0, 0 ) 0.6723484848484849, 0.32575757575757575, 0.001893939393939394;
  ( 0, 1 ) 0.5941747572815534, 0.40388349514563104, 0.001941747572815534;
  ( 0, 2 ) 0.9342105263157895, 0.05263157894736842, 0.013157894736842105;
  ( 1, 0 ) 0.34201954397394135, 0.6547231270358306, 0.003257328990228013;
  ( 1, 1 ) 0.824627807216755, 0.17486752460257382, 0.0005046681806712087;
  ( 1, 2 ) 0.9620689655172414, 0.03620689655172414, 0.0017241379310344827;
  ( 2, 0 ) 0.0014326647564469914, 0.14040114613180515, 0.8581661891117478;
  ( 2, 1 ) 0.1903114186851211, 0.7993079584775087, 0.010380622837370242;
  ( 2, 2 ) 0.17647058823529413, 0.8137254901960784, 0.00980392156862745;
}
probability ( Erk | Mek, PKA ) {
  ( 0, 0 ) 0.8330308529945554, 0.1560798548094374, 0.010889292196007259;
  ( 0, 1 ) 0.1207467630231858, 0.6889491117133394, 0.19030412526347484;
  ( 0, 2 ) 0.08872901678657075, 0.6894484412470024, 0.22182254196642687;
  ( 1, 0 ) 0.41304347826086957, 0.47101449275362317, 0.11594202898550725;
  ( 1, 1 ) 0.04969217238346526, 0.7251539138082673, 0.22515391380826738;
  ( 1, 2 ) 0.043478260869565216, 0.17391304347826086, 0.782608695652174;
  ( 2, 0 ) 0.014218009478672985, 0.1848341232227488, 0.8009478672985783;
  ( 2, 1 ) 0.02564102564102564, 0.6666666666666666, 0.3076923076923077;
  ( 2, 2 ) 0.03333333, 0.03333333, 0.93333333;
}
probability ( Jnk | PKA, PKC ) {
  ( 0, 0 ) 0.27229676400947117, 0.2557221783741121, 0.47198105761641673;
  ( 0, 1 ) 0.5577689243027888, 0.43824701195219123, 0.00398406374501992;
  ( 0, 2 ) 0.06666666666666667, 0.8666666666666667, 0.06666666666666667;
  ( 1, 0 ) 0.581998474446987, 0.41723874904652936, 0.0007627765064836003;
  ( 1, 1 ) 0.6138256524153248, 0.38589672404219877, 0.000277623542476402;
  ( 1, 2 ) 0.052704576976421634, 0.9181692094313454, 0.02912621359223301;
  ( 2, 0 ) 0.9934725848563969, 0.005221932114882507, 0.0013054830287206266;
  ( 2, 1 ) 0.8636363636363636, 0.12121212121212122, 0.015151515151515152;
  ( 2, 2 ) 0.10714285714285714, 0.8571428571428571, 0.03571428571428571;
}
probability ( Mek | PKA, PKC, Raf ) {
  ( 0, 0, 0 ) 0.7111111111111111, 0.2777777777777778, 0.011111111111111112;
  ( 0, 0, 1 ) 0.4121212121212121, 0.11515151515151516, 0.4727272727272727;
  ( 0, 0, 2 ) 0.24656188605108054, 0.003929273084479371, 0.74950884086444;
  ( 0, 1, 0 ) 0.6236559139784946, 0.3655913978494624, 0.010752688172043012;
  ( 0, 1, 1 ) 0.34177215189873417, 0.6455696202531646, 0.012658227848101266;
  ( 0, 1, 2 ) 0.9058823529411765, 0.058823529411764705, 0.03529411764705882;
  ( 0, 2, 0 ) 0.7692307692307693, 0.15384615384615385, 0.07692307692307693;
  ( 0, 2, 1 ) 0.2, 0.6, 0.2;
  ( 0, 2, 2 ) 0.3333333, 0.3333333, 0.3333333;
  ( 1, 0, 0 ) 0.7391304347826086, 0.25925925925925924, 0.001610305958132045;
  ( 1, 0, 1 ) 0.353887399463807, 0.6327077747989276, 0.013404825737265416;
  ( 1, 0, 2 ) 0.826625386996904, 0.13312693498452013, 0.04024767801857585;
  ( 1, 1, 0 ) 0.724802371541502, 0.274703557312253, 0.0004940711462450593;
  ( 1, 1, 1 ) 0.2822349570200573, 0.7134670487106017, 0.004297994269340974;
  ( 1, 1, 2 ) 0.3670212765957447, 0.5478723404255319, 0.0851063829787234;
  ( 1, 2, 0 ) 0.8190327613104524, 0.1794071762870515, 0.0015600624024961;
  ( 1, 2, 1 ) 0.1566265060240964, 0.8313253012048193, 0.012048192771084338;
  ( 1, 2, 2 ) 0.3333333, 0.3333333, 0.3333333;
  ( 2, 0, 0 ) 0.9922839506172839, 0.006172839506172839, 0.0015432098765432098;
  ( 2, 0, 1 ) 0.9807692307692307, 0.009615384615384616, 0.009615384615384616;
  ( 2, 0, 2 ) 0.9, 0.05, 0.05;
  ( 2, 1, 0 ) 0.9333333333333333, 0.044444444444444446, 0.022222222222222223;
  ( 2, 1, 1 ) 0.8125, 0.125, 0.0625;
  ( 2, 1, 2 ) 0.6363636363636364, 0.2727272727272727, 0.09090909090909091;
  ( 2, 2, 0 ) 0.52, 0.44, 0.04;
  ( 2, 2, 1 ) 0.16666666666666666, 0.6666666666666666, 0.16666666666666666;
  ( 2, 2, 2 ) 0.3333333, 0.3333333, 0.3333333;
}
probability ( P38 | PKA, PKC ) {
  ( 0, 0 ) 0.2880820836621942, 0.0702446724546172, 0.6416732438831886;
  ( 0, 1 ) 0.6215139442231076, 0.3745019920318725, 0.00398406374501992;
  ( 0, 2 ) 0.8666666666666667, 0.06666666666666667, 0.06666666666666667;
  ( 1, 0 ) 0.9229595728451564, 0.07322654462242563, 0.0038138825324180014;
  ( 1, 1 ) 0.8070516379789006, 0.19267073847862298, 0.000277623542476402;
  ( 1, 2 ) 0.79750346740638, 0.1955617198335645, 0.006934812760055479;
  ( 2, 0 ) 0.8015665796344648, 0.09399477806788512, 0.10443864229765012;
  ( 2, 1 ) 0.30303030303030304, 0.21212121212121213, 0.48484848484848486;
  ( 2, 2 ) 0.7857142857142857, 0.17857142857142858, 0.03571428571428571;
}
probability ( PIP2 | PIP3, Plcg ) {
  ( 0, 0 ) 0.9936974789915967, 0.0056022408963585435, 0.0007002801120448179;
  ( 0, 1 ) 0.9285714285714286, 0.023809523809523808, 0.047619047619047616;
  ( 0, 2 ) 0.25149700598802394, 0.46107784431137727, 0.2874251497005988;
  ( 1, 0 ) 0.9841215050051778, 0.015533310321021747, 0.00034518467380048324;
  ( 1, 1 ) 0.9545454545454546, 0.03787878787878788, 0.007575757575757576;
  ( 1, 2 ) 0.057291666666666664, 0.3619791666666667, 0.5807291666666666;
  ( 2, 0 ) 0.8582852065748556, 0.13238560639715682, 0.009329187027987561;
  ( 2, 1 ) 0.5054466230936819, 0.477124183006536, 0.017429193899782137;
  ( 2, 2 ) 0.04, 0.09, 0.87;
}
probability ( PIP3 | Plcg ) {
  ( 0 ) 0.21704718417047184, 0.4406392694063927, 0.34231354642313544;
  ( 1 ) 0.06379585326953748, 0.20733652312599682, 0.7288676236044657;
  ( 2 ) 0.4088669950738916, 0.47044334975369456, 0.1206896551724138;
}
probability ( PKA | PKC ) {
  ( 0 ) 0.37896944278010786, 0.39215098861593767, 0.22887956860395448;
  ( 1 ) 0.06363404037822643, 0.9200102223358038, 0.016355737285969844;
  ( 2 ) 0.017150395778364115, 0.9485488126649076, 0.03430079155672823;
}
probability ( PKC ) {
  table 0.416843683618643, 0.48869174059727605, 0.09446457578408098;
}
probability ( Plcg ) {
  table 0.8206922404098463, 0.0780957141072098, 0.1012120454829439;
}
probability ( Raf | PKA, PKC ) {
  ( 0, 0 ) 0.06945540647198106, 0.1286503551696922, 0.8018942383583267;
  ( 0, 1 ) 0.36254980079681276, 0.30677290836653387, 0.33067729083665337;
  ( 0, 2 ) 0.7333333333333333, 0.2, 0.06666666666666667;
  ( 1, 0 ) 0.47215865751334857, 0.2829900839054157, 0.2448512585812357;
  ( 1, 1 ) 0.5613548028872848, 0.3870072182121044, 0.051637978900610775;
  ( 1, 2 ) 0.8862690707350902, 0.11234396671289876, 0.0013869625520110957;
  ( 2, 0 ) 0.8433420365535248, 0.13315926892950392, 0.02349869451697128;
  ( 2, 1 ) 0.6515151515151515, 0.21212121212121213, 0.13636363636363635;
  ( 2, 2 ) 0.8214285714285714, 0.14285714285714285, 0.03571428571428571;
}
