network unknown {}

variable asia {
  type discrete [ 2 ] { 0, 1 };
}
variable tub {
  type discrete [ 2 ] { 0, 1 };
}
variable smoke {
  type discrete [ 2 ] { 0, 1 };
}
variable lung {
  type discrete [ 2 ] { 0, 1 };
}
variable bronc {
  type discrete [ 2 ] { 0, 1 };
}
variable either {
  type discrete [ 2 ] { 0, 1 };
}
variable xray {
  type discrete [ 2 ] { 0, 1 };
}
variable dysp {
  type discrete [ 2 ] { 0, 1 };
}
probability ( asia ) {
  table 0.009637259068523286, 0.9903627409314768;
}
probability ( tub ) {
  table 0.010637234069148271, 0.9893627659308518;
}
probability ( smoke | bronc, lung ) {
  ( 0, 0 ) 0.9365436543654365, 0.06345634563456345;
  ( 0, 1 ) 0.650375939849624, 0.34962406015037595;
  ( 1, 0 ) 0.845427435387674, 0.15457256461232605;
  ( 1, 1 ) 0.3374690417222328, 0.6625309582777672;
}
probability ( lung | dysp ) {
  ( 0 ) 0.09898740003452046, 0.9010125999654796;
  ( 1 ) 0.01748375403386234, 0.9825162459661377;
}
probability ( bronc | dysp, either ) {
  ( 0, 0 ) 0.5713934022648941, 0.42860659773510584;
  ( 0, 1 ) 0.8726141619438473, 0.1273858380561527;
  ( 1, 0 ) 0.27318548387096775, 0.7268145161290321;
  ( 1, 1 ) 0.1496203561420953, 0.8503796438579048;
}
probability ( either | tub, lung ) {
  ( 0, 0 ) 0.96875, 0.03125;
  ( 0, 1 ) 0.9987834549878345, 0.0012165450121654502;
  ( 1, 0 ) 0.9997620180866255, 0.00023798191337458355;
  ( 1, 1 ) 1.3341872131497493e-05, 0.9999866581278686;
}
probability ( xray | either ) {
  ( 0 ) 0.9899049881235155, 0.01009501187648456;
  ( 1 ) 0.05231348062760167, 0.9476865193723985;
}
probability ( dysp | tub ) {
  ( 0 ) 0.7640845070422534, 0.2359154929577465;
  ( 1 ) 0.43095562967455026, 0.5690443703254499;
}
